<?xml version="1.0"?>
<opencv_storage>
<fool type_id="opencv-object-detector-hog">
  <winSize>
    144 32</winSize>
  <blockSize>
    16 16</blockSize>
  <blockStride>
    8 8</blockStride>
  <cellSize>
    8 8</cellSize>
  <nbins>9</nbins>
  <derivAperture>1</derivAperture>
  <winSigma>4.</winSigma>
  <histogramNormType>0</histogramNormType>
  <L2HysThreshold>2.0000000000000001e-01</L2HysThreshold>
  <gammaCorrection>1</gammaCorrection>
  <nlevels>64</nlevels>
  <signedGradient>0</signedGradient>
  <SVMDetector>
    5.16126119e-03 -2.11454425e-02 -3.39606516e-02 -2.81802714e-02
    -3.69537435e-03 -9.10922140e-03 -4.12431508e-02 -5.05129136e-02
    -9.83469468e-03 1.12422341e-02 -5.70886396e-02 -6.22287579e-02
    -1.29802562e-02 -4.03232947e-02 1.32306358e-02 -1.44526539e-02
    -3.74911241e-02 -7.12777895e-04 2.70956568e-02 8.03217664e-03
    6.16136333e-03 1.47043495e-02 3.57931443e-02 2.47663148e-02
    -1.56735778e-02 -3.36970086e-03 3.40097100e-02 1.54206995e-02
    -1.59001593e-02 -3.21502052e-02 1.86639582e-03 -1.13532366e-02
    2.07114890e-02 3.02590188e-02 2.59460951e-03 3.84610817e-02
    8.27666186e-03 -3.83339226e-02 -2.45125014e-02 3.15987654e-02
    -2.74820179e-02 2.68781744e-03 5.38362016e-04 -3.42560299e-02
    -4.68722894e-04 1.49067314e-02 -4.31432687e-02 -1.54361501e-02
    1.47871403e-02 -3.70347276e-02 -1.13554569e-02 -1.07148010e-02
    -5.37339188e-02 2.20938306e-02 3.96079049e-02 1.63261741e-02
    -2.91837868e-03 1.57262273e-02 -1.62137914e-02 -5.24341129e-03
    1.32186068e-02 8.04822077e-04 2.23600566e-02 3.46801654e-02
    2.15870067e-02 2.55461428e-02 2.21771225e-02 2.36797221e-02
    1.73262060e-02 3.96067230e-03 -1.26791522e-02 1.50911119e-02
    2.15233732e-02 -4.63992618e-02 -2.46320944e-02 -2.20664591e-02
    -7.01740384e-02 -4.30064313e-02 -1.55288223e-02 -3.06747574e-02
    5.19249626e-02 -3.97611782e-02 -4.60867397e-02 -7.07386201e-03
    2.68556140e-02 8.30686316e-02 3.27507965e-02 3.62582481e-03
    -3.35055101e-03 1.02458429e-02 2.55358107e-02 -1.42715620e-02
    -1.35115152e-02 -8.34018923e-03 2.99693691e-03 -3.02402023e-02
    -2.33455785e-02 1.19563313e-02 3.28838825e-02 -2.04609837e-02
    -3.09763402e-02 -2.09052283e-02 3.62678431e-02 1.12563565e-01
    5.32285646e-02 9.19688866e-03 5.27389646e-02 6.27274439e-03
    -1.61392484e-02 1.19654275e-03 -1.20720956e-02 6.64565305e-04
    1.57553758e-02 -2.25392710e-02 -3.97267491e-02 -2.02667229e-02
    -1.46643836e-02 -2.43687928e-02 -2.12859083e-02 -2.38574762e-02
    -1.18461922e-02 -3.84988524e-02 -2.82601323e-02 -2.73943823e-02
    -2.41187979e-02 -2.26955786e-02 3.38016413e-02 3.35465297e-02
    3.76069825e-03 1.24830718e-03 1.01649028e-03 1.33459652e-02
    -7.84632936e-03 2.05529239e-02 1.75424572e-02 4.03821208e-02
    -1.25237517e-02 -1.37732923e-02 -2.38337759e-02 -1.68297756e-02
    -1.32538397e-02 -1.89000499e-02 -7.24541442e-03 -2.93072825e-03
    -1.51411081e-02 -2.03522369e-02 -2.18406431e-02 -8.37879535e-03
    -3.77730317e-02 -3.70914377e-02 -3.19555029e-02 -1.57627799e-02
    -2.14841012e-02 5.04096563e-04 -9.12764668e-03 -7.26933451e-03
    -8.50990973e-03 -2.75822468e-02 -3.44773009e-02 -3.24851163e-02
    -2.02795565e-02 -2.19456702e-02 2.22289823e-02 -2.25862712e-02
    -2.53638122e-02 -6.80325599e-03 -3.62942033e-02 -4.47564945e-03
    -1.36222336e-02 -1.27108325e-03 1.54034346e-02 4.98002628e-03
    -3.44803669e-02 -1.64534058e-02 -3.98253696e-03 -1.73050836e-02
    -4.34674975e-03 9.84630664e-04 3.45427287e-03 1.53252725e-02
    2.05745529e-02 3.14515643e-03 3.59551748e-03 3.23651661e-03
    -3.86089049e-02 -6.35991693e-02 -2.74514258e-02 8.82096123e-03
    1.39854476e-02 -4.93403226e-02 -1.66122075e-02 -1.70793943e-02
    -1.83433685e-02 7.82041401e-02 -1.63435917e-02 -1.18637756e-02
    2.37123817e-02 -3.07803173e-02 3.98897864e-02 2.61147153e-02
    1.88905764e-02 3.13313641e-02 -1.26271811e-03 -2.46550683e-02
    9.47840512e-03 2.36612875e-02 4.81370017e-02 -3.18823606e-02
    7.01028900e-03 9.13754199e-03 1.21141775e-02 8.70045722e-02
    9.57556535e-03 9.75579675e-03 3.31693105e-02 2.80788494e-03
    1.37827666e-02 2.83613913e-02 -3.16059712e-04 -2.28782855e-02
    1.12187751e-02 1.51676219e-02 -5.72354242e-04 2.24943832e-02
    1.88546963e-02 3.08780316e-02 1.16489008e-02 -1.54794557e-02
    -2.60651074e-02 -2.79887095e-02 -2.21325061e-03 -1.01056071e-02
    -5.77968871e-03 2.61702985e-02 -9.85095929e-03 1.11091742e-02
    1.08522344e-02 1.29397390e-02 1.45001188e-02 -7.35753356e-03
    9.65990825e-04 2.44574118e-02 1.30780749e-02 8.80737382e-04
    1.65574010e-02 -5.84760075e-03 3.66731361e-03 -1.51481787e-02
    -3.64426896e-03 -6.02887245e-03 2.25042412e-03 2.04835529e-03
    2.22146679e-02 -1.05884457e-02 -1.68022066e-02 -1.98402889e-02
    -3.92634533e-02 -1.20057138e-02 -3.41592692e-02 -2.93185073e-03
    2.43104436e-02 1.78777277e-02 -4.21401486e-02 -2.50038560e-02
    2.53916602e-03 -5.01558278e-03 -3.27711646e-03 -5.10082440e-03
    1.00469170e-02 1.51665993e-02 -5.34378970e-03 -6.89120172e-03
    -2.50669792e-02 -8.98495410e-03 -3.20772678e-02 -9.77089256e-03
    -3.68787237e-02 -1.35266753e-02 -8.34440719e-03 -2.28624418e-03
    -2.15685405e-02 -4.77598198e-02 -4.79627214e-03 -6.24871114e-03
    1.08171189e-02 -5.27459942e-03 -2.27517933e-02 1.54579505e-02
    2.49364581e-02 4.36309259e-03 -6.04829111e-05 1.56919919e-02
    -1.62602705e-03 -8.54727533e-03 1.29211098e-02 3.68409306e-02
    1.83344763e-02 -5.96259497e-02 1.00534568e-02 2.20988933e-02
    3.73396534e-03 4.62620892e-02 -4.13232669e-02 1.12006557e-03
    8.92033428e-03 -3.38761285e-02 4.75320853e-02 1.64317042e-02
    -2.25541815e-02 -6.02243515e-03 5.62252803e-03 1.54873710e-02
    2.04558708e-02 3.74077670e-02 5.22648916e-02 -7.01935636e-03
    3.30372863e-02 2.11043432e-02 -1.88934170e-02 3.61019447e-02
    -1.18383570e-02 1.90143548e-02 1.62924286e-02 -5.30558231e-04
    1.98199358e-02 9.68430471e-03 -4.36374266e-03 1.61497761e-02
    3.76482285e-03 -1.08488211e-02 -4.83288569e-03 8.37887358e-03
    -4.49683983e-03 3.49584892e-02 2.84589548e-03 -2.77986042e-02
    -3.00615025e-03 -1.83880422e-02 -3.39524052e-03 6.56543393e-03
    -2.48541939e-04 1.51111549e-02 -1.67771685e-03 1.86370965e-02
    3.74163408e-03 -9.89020336e-04 -5.15033118e-03 -1.86600517e-02
    1.14853736e-02 1.60665847e-02 -2.69993823e-02 2.43505836e-02
    1.36532832e-03 -2.03379039e-02 -7.93786254e-03 -1.86380502e-02
    -1.55785577e-02 4.68588527e-03 1.79548636e-02 1.64774712e-02
    1.79783739e-02 -4.70936159e-03 -4.35265154e-02 -2.53338483e-03
    -1.87642705e-02 3.95403802e-03 -1.45803057e-02 -1.36530520e-02
    2.65479065e-03 2.33118795e-02 -2.07252633e-02 -5.46816140e-02
    -3.26005579e-03 -8.69425666e-03 3.12683615e-03 -2.30816491e-02
    -4.10334133e-02 2.65591405e-02 1.46646742e-02 -1.61990728e-02
    -4.73340973e-02 -1.43803833e-02 -8.77724122e-03 1.10115968e-02
    -2.16651219e-03 2.98108086e-02 1.24069089e-02 2.05164850e-02
    -1.56975556e-02 -4.84605059e-02 -1.46383177e-02 -1.81373321e-02
    -1.71317495e-02 -1.91746131e-02 -1.75014194e-02 1.77270565e-02
    7.35088363e-02 2.52809245e-02 -1.24298204e-02 6.18741289e-03
    -1.73507184e-02 4.29968117e-03 1.88840833e-03 9.60824545e-03
    5.30342534e-02 -1.66517030e-02 3.73233221e-02 1.30274668e-02
    -2.90408507e-02 2.42221486e-02 3.81411309e-03 7.13601010e-04
    1.00474041e-02 -2.74586175e-02 3.51309516e-02 3.77572253e-02
    8.42907350e-04 9.07042157e-03 -2.44529694e-02 -2.18622778e-02
    -1.18528958e-02 7.86275417e-03 3.89908254e-02 -5.23731671e-02
    2.60891933e-02 1.30156791e-02 -2.22743228e-02 6.66496903e-02
    1.02209148e-03 -7.53541535e-04 1.84607655e-02 -5.77285662e-02
    1.53777504e-03 2.33913083e-02 -3.01859132e-03 -1.08098295e-02
    -1.63953472e-02 -1.98860932e-02 -9.00976267e-03 -5.08245139e-04
    -1.55104855e-02 2.67498679e-02 1.92692538e-03 -1.59223396e-02
    -8.13510269e-03 -1.25125600e-02 -5.22892922e-03 -1.65699534e-02
    4.19384521e-03 5.60385175e-03 3.71354371e-02 1.61018521e-02
    5.78051107e-03 -1.23665351e-02 1.36226723e-02 -4.44986578e-03
    -1.41034722e-02 6.35485351e-03 -2.87260814e-03 4.21306491e-02
    1.06043154e-02 -2.02354826e-02 -1.84267107e-02 6.37563830e-03
    -1.74744483e-02 -2.35062800e-02 1.46989466e-03 3.64547707e-02
    1.53002320e-02 -3.84453894e-03 -2.43497100e-02 -3.77383595e-03
    1.61967780e-02 1.66721381e-02 2.11852742e-03 3.35025787e-02
    9.27542709e-03 -1.64223500e-02 -3.10952421e-02 -2.56393366e-02
    5.29744197e-03 2.08085426e-03 -1.06693581e-02 -2.59119570e-02
    1.60866068e-03 2.58351886e-03 2.41120383e-02 -6.74403366e-03
    -3.26255374e-02 -8.69413372e-03 -1.58177912e-02 -6.00140635e-03
    -3.23516876e-03 6.07079640e-03 3.35694999e-02 1.23034408e-02
    -5.15752472e-03 -2.11671013e-02 2.86282343e-03 -3.00774015e-02
    -1.66022219e-02 -2.79300660e-02 -2.95674382e-03 9.68791638e-03
    2.43033338e-02 2.05983557e-02 1.00324191e-02 2.51498185e-02
    -8.76590703e-03 -2.00820272e-03 -1.88667681e-02 1.22873196e-02
    2.97064260e-02 -4.91095334e-02 9.12695564e-03 9.08112433e-03
    -9.70646832e-03 3.61923128e-02 -1.75146554e-02 -2.03339360e-03
    1.06363185e-02 -3.32680047e-02 5.70114404e-02 4.24497165e-02
    2.34871525e-02 3.37835550e-02 -2.15990818e-03 1.25293620e-02
    1.86870918e-02 2.37849243e-02 4.77847345e-02 -2.07039583e-02
    7.12052127e-03 2.76013073e-02 7.10925180e-03 5.54343686e-02
    1.02803381e-02 3.92100513e-02 2.02450529e-02 -8.82438291e-03
    1.48647474e-02 1.21999886e-02 3.10561131e-03 5.25886053e-03
    2.79725548e-02 -1.03760706e-02 -2.05271635e-02 -2.35976651e-03
    -1.96675975e-02 4.12033424e-02 1.12860638e-03 -1.84742510e-02
    -1.33675411e-02 -4.25793836e-03 -2.13487446e-02 -2.11454593e-02
    3.88956454e-04 1.58477072e-02 1.86738390e-02 2.69734152e-02
    -1.15220258e-02 5.22031309e-03 3.59687768e-02 1.06922574e-02
    -1.18825594e-02 -1.01510184e-02 -9.60224122e-03 2.26726234e-02
    -1.01078907e-02 -4.41541560e-02 -4.05093702e-03 -5.22665400e-03
    1.50104379e-02 1.12836352e-02 -2.25857999e-02 -1.78670939e-02
    2.54285932e-02 -1.93335246e-02 -3.86184677e-02 -5.83141204e-03
    -2.28323229e-02 -1.53301787e-02 -8.82308464e-03 1.24647999e-02
    1.86245460e-02 1.88315324e-02 -1.91394202e-02 -3.86196189e-02
    -1.54562155e-02 -2.69358009e-02 -2.08600722e-02 -2.98037510e-02
    -4.01388258e-02 1.04389563e-02 2.19573155e-02 -4.28827144e-02
    -6.44254386e-02 -2.30295416e-02 -2.74550989e-02 -4.58097598e-03
    1.70489419e-02 -4.10176627e-03 -2.46691750e-03 3.16640623e-02
    -3.85277607e-02 -6.21897131e-02 -2.37478912e-02 -9.97090526e-03
    -1.29309213e-02 -4.37617153e-02 -3.61062549e-02 1.17341159e-02
    6.37286380e-02 4.36867848e-02 1.36678191e-02 -4.33305744e-03
    3.00114639e-02 5.36009595e-02 4.15112963e-03 -1.27489977e-02
    4.66112345e-02 -3.63061503e-02 7.04084849e-03 1.46836797e-02
    -7.52551528e-03 4.40872312e-02 2.90825181e-02 1.30245909e-02
    -1.02417134e-02 -3.41417938e-02 4.49185371e-02 2.28707325e-02
    1.23261753e-02 3.98719721e-02 3.29068489e-02 2.96647791e-02
    -2.68081315e-02 -2.14349348e-02 1.66891273e-02 -2.47063506e-02
    8.66021402e-03 1.48975058e-02 1.08563248e-02 7.07746893e-02
    1.98635440e-02 -1.25602270e-02 -1.25015909e-02 -3.24554704e-02
    7.10867811e-03 5.51194325e-02 1.22241266e-02 -2.99669662e-03
    2.95592956e-02 1.93990748e-02 -4.02757246e-03 -8.58252961e-03
    -1.55820493e-02 5.50343376e-03 3.56195197e-02 -2.01709382e-02
    3.14579299e-03 1.65773463e-03 1.71571858e-02 3.31383683e-02
    -1.72336493e-02 -3.33311446e-02 1.68169551e-02 5.42687289e-02
    3.75827961e-02 1.38370902e-03 2.50625107e-02 -8.33606720e-03
    -1.78216510e-02 -2.19981596e-02 -2.37976741e-02 9.91360983e-04
    2.04933845e-02 -8.26369692e-03 -1.06706172e-02 -4.09140699e-02
    -2.46017054e-02 -1.86101417e-03 4.12607612e-03 -3.88849303e-02
    2.24119648e-02 -9.50122811e-03 -4.42896225e-02 -3.16273682e-02
    -2.22893376e-02 4.86070383e-03 4.73754592e-02 3.64336334e-02
    -5.27547859e-03 3.76140364e-02 -2.05943491e-02 -3.99519950e-02
    -4.17380109e-02 -1.10425204e-02 -4.77412576e-03 -5.11855818e-03
    9.96218901e-03 2.59467084e-02 -2.05319691e-02 -7.35373190e-03
    -3.48810367e-02 -2.47309376e-02 -7.65367076e-02 -2.99227312e-02
    1.93722025e-02 3.94964702e-02 -1.21407304e-02 -1.34663014e-02
    -2.71917880e-02 -3.39112990e-02 -2.83999406e-02 -6.16422556e-02
    -3.13844457e-02 -1.47330780e-02 -1.60274990e-02 -2.25224043e-03
    6.92720711e-02 6.22808598e-02 4.24398929e-02 1.05889775e-02
    6.42241677e-04 1.68963312e-03 -1.85632277e-02 5.25306026e-03
    1.43368589e-02 -1.18649937e-02 5.54860942e-02 4.71343361e-02
    7.78244203e-03 1.76520534e-02 -3.39565706e-03 7.68640311e-03
    -9.71465313e-04 -5.80757782e-02 4.18459773e-02 4.08367403e-02
    2.68342979e-02 -1.26822870e-02 -7.80277373e-03 6.70260005e-03
    -1.11685460e-02 1.21238886e-03 2.57241055e-02 -2.65454091e-02
    3.83289009e-02 1.61308683e-02 -1.13163115e-02 -1.09400684e-02
    4.21254477e-03 1.22593669e-02 -8.29097722e-03 -4.32610027e-02
    -1.54582737e-03 4.25627679e-02 2.93904226e-02 2.21339297e-02
    2.58926526e-02 1.34104956e-02 -1.66710857e-02 -4.53139544e-02
    -3.12533230e-02 2.26145145e-03 2.12889467e-03 -2.00323295e-02
    -1.18130054e-02 1.74989912e-03 3.11669800e-03 -1.98990125e-02
    -1.49863381e-02 -2.05060355e-02 1.45210316e-02 2.18282584e-02
    1.57419033e-02 1.09894313e-02 1.76183265e-02 1.82984527e-02
    -1.65898148e-02 -2.51667053e-02 -1.96511522e-02 2.44018361e-02
    -4.21923865e-03 -1.77414045e-02 -3.15066986e-02 -1.58373583e-02
    2.11647544e-02 -6.53574849e-03 -1.89708862e-02 6.28363527e-03
    -2.45594755e-02 -3.32294889e-02 -2.52772737e-02 -2.28311922e-02
    -2.23357733e-02 -1.04540996e-02 -8.88576359e-03 -2.08653416e-02
    -1.98345724e-02 -7.43298652e-03 -2.68099457e-02 -1.89560391e-02
    -3.35523747e-02 -4.84810397e-02 -2.42528189e-02 -3.15898471e-02
    -3.72175239e-02 4.97159967e-03 3.86395529e-02 -1.56274457e-02
    -3.96605674e-03 -3.58491689e-02 -1.79474428e-02 1.97715666e-02
    -3.51685681e-03 -2.45635100e-02 9.02477838e-03 1.02228438e-02
    -3.10562961e-02 -1.73572991e-02 -6.03226833e-02 -6.94801584e-02
    -2.56997775e-02 -2.28483863e-02 -3.95647287e-02 1.36461703e-03
    4.83325310e-02 1.72701962e-02 2.80703772e-02 -4.81301220e-03
    -2.58572586e-03 7.39586772e-03 -6.43001217e-03 2.78454710e-04
    3.95255573e-02 -2.76848208e-02 -6.17719861e-03 8.19104910e-03
    1.89527050e-02 6.17662631e-03 3.11304629e-02 2.50296313e-02
    -2.73711211e-03 -2.71636806e-02 5.36263026e-02 7.18313688e-03
    2.97995731e-02 9.84113431e-04 1.18098613e-02 1.43705681e-03
    1.61623489e-02 2.06333701e-03 5.56825064e-02 -2.48190649e-02
    -2.31042132e-02 8.82555451e-03 4.11509760e-02 4.88519967e-02
    6.24192646e-03 3.64685841e-02 -1.25092091e-02 -3.21890526e-02
    2.36602430e-03 -1.14517305e-02 -1.29351802e-02 -2.88486900e-03
    9.89810843e-03 1.11470604e-02 -5.55600738e-03 -1.59328170e-02
    1.03292405e-03 4.84713726e-02 -6.17934251e-03 -9.69077833e-03
    -6.31457428e-03 -3.10636181e-02 5.99042140e-03 -6.72351941e-03
    -1.41695486e-02 3.63628380e-02 3.91124981e-03 -1.62099916e-02
    -4.65832558e-03 8.28763656e-03 9.39340796e-03 -1.62812066e-03
    -1.16442041e-02 -3.73233110e-03 4.59658355e-03 2.92746387e-02
    -8.38091597e-03 -5.96403424e-03 3.02800885e-03 -3.37225832e-02
    -1.35279298e-02 -1.43809486e-02 -6.07778598e-03 4.85811532e-02
    1.69876544e-03 -1.91050079e-02 4.43922635e-03 -2.40169130e-02
    -3.73811834e-02 7.52009568e-04 4.22456162e-03 -1.34908678e-02
    7.17612915e-03 9.24490392e-03 -2.97552999e-02 -7.86770787e-03
    -6.72470629e-02 -8.26234370e-02 -3.86378467e-02 -1.58128366e-02
    -2.40160134e-02 9.12340637e-03 4.06419346e-03 -2.13526431e-02
    4.54595638e-03 -3.58149898e-03 -5.15033230e-02 -3.15600522e-02
    7.98539433e-04 -2.74532009e-02 3.47625325e-03 -3.75645584e-03
    -2.78205927e-02 -1.95150077e-02 -4.48923931e-02 -9.52531397e-02
    -7.54080787e-02 -1.08756870e-02 -3.58646773e-02 4.25058184e-03
    7.18321949e-02 2.87120044e-02 2.39927694e-02 -7.81208463e-03
    -2.07231119e-02 -1.28360065e-02 4.00097389e-03 1.30857602e-02
    7.06770495e-02 -3.16788815e-02 -9.09947231e-03 1.50670605e-02
    2.69263722e-02 3.04444283e-02 7.06296787e-03 8.80578347e-03
    -2.93922555e-02 -5.93371578e-02 6.80710077e-02 1.16385082e-02
    4.60675359e-03 -6.41788729e-03 -1.81008764e-02 -8.78732186e-03
    3.08226924e-02 2.94183046e-02 6.93422928e-02 -5.44421300e-02
    -3.39339338e-02 1.05911819e-02 6.09701267e-03 3.72159705e-02
    3.42540070e-02 1.33290542e-02 -1.38835683e-02 -1.82522833e-02
    -2.78680157e-02 -2.78100222e-02 -1.45005630e-02 1.86599214e-02
    1.88616011e-02 8.75775702e-03 1.40626989e-02 2.48833261e-02
    4.66641830e-03 1.18924016e-02 -1.28692314e-02 -8.28690734e-03
    2.12270822e-02 -1.26172611e-02 -2.99727693e-02 -2.01850068e-02
    -2.83862604e-03 2.36475002e-02 -3.41861546e-02 -4.78964522e-02
    -1.91946104e-02 1.12932380e-02 2.74851620e-02 2.57601626e-02
    3.17812115e-02 5.40597476e-02 4.87148995e-03 -2.13063955e-02
    -8.61221645e-03 -2.04908829e-02 -9.03439795e-05 -1.10630623e-04
    -9.12359636e-03 -1.30063919e-02 7.96188135e-03 1.82797434e-03
    9.52369161e-03 -1.52170695e-02 -4.44610510e-03 1.99737418e-02
    -8.58420320e-03 -2.34685130e-02 -4.40966105e-03 -1.54007515e-02
    4.15539667e-02 2.14988971e-03 -3.90981771e-02 -2.46878844e-02
    -1.58191454e-02 -5.57189062e-02 -4.56737429e-02 -1.23349577e-02
    -2.97748726e-02 2.04399880e-02 -2.29280218e-02 -1.06417006e-02
    -9.00141336e-03 -1.24932937e-02 -2.37373523e-02 -1.65930558e-02
    -2.46373434e-02 -3.78419496e-02 -2.23246403e-02 5.73853124e-03
    -3.18473577e-02 -3.10707483e-02 -2.88690701e-02 -5.22808656e-02
    -3.50960605e-02 -2.39109136e-02 -2.54223011e-02 -4.86069079e-03
    5.45116477e-02 4.96981153e-03 1.66071393e-02 3.72354803e-03
    1.35119101e-02 3.03089689e-03 3.24118063e-02 1.05567519e-02
    6.06679432e-02 -3.41166183e-02 -1.04024960e-02 3.67795974e-02
    7.61158438e-03 3.99026684e-02 4.51326817e-02 1.13373939e-02
    -1.89740062e-02 -3.38324569e-02 3.37225609e-02 -1.83639454e-03
    -6.74814591e-03 8.27565882e-03 9.46585031e-04 -2.19150912e-03
    2.62511168e-02 1.79132856e-02 4.75419462e-02 -2.71147583e-02
    -2.48950580e-03 2.42721438e-02 3.15863602e-02 1.65959485e-02
    1.74787585e-02 6.43513817e-03 4.73182183e-03 -2.85309218e-02
    -2.89964359e-02 -2.14964412e-02 -1.45350257e-02 -9.71545838e-03
    1.79990605e-02 -2.02066032e-03 3.25650238e-02 5.29228188e-02
    1.25650931e-02 -3.35730165e-02 2.92289350e-03 6.26976427e-04
    -2.95604132e-02 -3.71539332e-02 -3.65217589e-03 -6.19556569e-03
    2.55329031e-02 6.36934815e-03 -1.63876805e-02 -9.37968027e-03
    -1.46259612e-03 1.91299431e-02 3.15849334e-02 -2.80564069e-03
    1.03486059e-02 5.27799539e-02 7.21310591e-03 -3.77108417e-02
    -2.86045168e-02 3.33641805e-02 2.27286778e-02 -3.74155771e-03
    3.24786897e-03 -2.64555849e-02 2.97964010e-02 -3.70391784e-03
    -1.07478378e-02 4.07408625e-02 2.26449519e-02 -2.70230863e-02
    -7.16800466e-02 -1.97422896e-02 -3.01329810e-02 -1.58148352e-03
    -1.85987987e-02 -1.41473208e-03 -1.18846847e-02 -1.51827307e-02
    -2.74730343e-02 -6.17545731e-02 -3.17007862e-02 -3.41994166e-02
    -3.26378383e-02 -5.31022297e-03 -8.95752665e-03 2.63630524e-02
    4.34713475e-02 1.68195355e-03 -2.47583110e-02 -3.52964699e-02
    -5.60655259e-02 -1.85197685e-02 1.74100045e-02 2.94367187e-02
    3.50921834e-03 -6.02545775e-03 -1.60142590e-04 -1.05597610e-02
    -5.05114086e-02 -5.29212542e-02 -2.29683705e-02 4.01771627e-02
    2.23394055e-02 7.93712272e-04 -8.68551061e-03 9.36026685e-03
    -8.19354970e-03 -1.47398487e-02 2.53255684e-02 4.10643145e-02
    4.29465733e-02 -5.02173938e-02 -1.15159312e-02 1.31973606e-02
    -1.19418313e-03 -1.53531292e-02 -1.53839355e-02 1.34168165e-02
    3.68826054e-02 -2.88919862e-02 1.32736079e-02 -4.03092569e-03
    -1.96055360e-02 -4.60790121e-04 -6.11141964e-04 1.51108885e-02
    3.63654234e-02 6.65088072e-02 6.60921186e-02 -5.66110350e-02
    -2.90093943e-03 7.54010770e-03 -5.44399396e-03 3.09005398e-02
    9.96744446e-03 4.43559177e-02 5.74772432e-02 -2.83155404e-03
    -8.48685764e-03 -6.79245079e-03 -1.36335120e-02 5.43150911e-03
    2.96102744e-02 6.49429276e-04 -1.48791978e-02 2.37632319e-02
    2.13149935e-02 -1.05800414e-02 -1.23824375e-02 3.38960462e-03
    1.32936044e-02 -1.65722379e-03 -5.43678598e-03 -3.92863788e-02
    -4.27087396e-03 2.84458864e-02 -2.04499029e-02 -3.96027416e-03
    -2.19359938e-02 -1.06097311e-02 2.53807064e-02 3.56368977e-03
    5.63758565e-03 1.06869014e-02 1.81689523e-02 1.57619286e-02
    8.27717129e-04 -2.30153799e-02 -2.37744059e-02 -6.49250858e-03
    -1.62072964e-02 -1.33787468e-02 -1.23555167e-03 3.91620882e-02
    4.38831933e-03 9.06541187e-04 1.23077473e-02 1.30550913e-03
    -8.40546470e-03 -1.58051550e-02 -5.62725551e-02 -3.43413800e-02
    2.84834094e-02 5.60401380e-03 -3.60299982e-02 -4.34191488e-02
    -1.76297538e-02 -6.20771386e-03 -2.26646960e-02 -5.96033372e-02
    -3.26706655e-02 3.49346474e-02 1.97440106e-02 1.05533497e-02
    -5.98610425e-03 -1.34459790e-02 -2.60875747e-02 -8.83196760e-03
    -3.88786010e-02 -1.87008195e-02 2.43675206e-02 -3.53864534e-03
    -3.87791470e-02 -3.03733982e-02 -2.57057082e-02 -2.99416985e-02
    -1.57935079e-02 -3.99606042e-02 -2.21895073e-02 2.00291593e-02
    2.64896117e-02 -1.55775808e-02 -1.99223235e-02 3.48237231e-02
    3.45361009e-02 2.95304526e-02 2.52885366e-04 1.54663259e-02
    4.48418036e-02 -3.42811570e-02 -1.41166970e-02 -1.11437645e-02
    2.18967274e-02 6.14542514e-02 6.46689301e-03 4.69818059e-03
    -2.67160870e-03 -3.60995866e-02 4.82623540e-02 -1.72389913e-02
    5.62713621e-03 4.90660630e-02 1.93659011e-02 3.61534208e-03
    1.44447908e-02 4.31958809e-02 6.47465587e-02 -2.43652146e-02
    -8.38988181e-03 1.57184154e-02 2.77681332e-02 5.18494099e-02
    -1.41563278e-03 1.88012458e-02 1.27798738e-02 -3.01537570e-02
    -5.35455951e-03 1.05087645e-02 -1.40271448e-02 -4.52509522e-03
    1.05129611e-02 -1.09912483e-02 6.14307402e-03 1.75268576e-02
    3.27806696e-02 3.90758924e-02 3.64995538e-03 -2.14661472e-02
    -1.38942245e-02 6.54069660e-03 -1.45259751e-02 -2.11410262e-02
    7.34825945e-03 4.70100567e-02 -2.10557524e-02 2.87195924e-03
    -4.01226152e-03 -1.82662942e-02 -2.08985098e-02 -8.28880724e-03
    1.81148096e-03 1.76840629e-02 3.01207090e-03 5.87143097e-03
    4.08116524e-04 -1.43340053e-02 -6.60679210e-03 -1.72070414e-02
    -7.36885332e-03 -1.73673220e-02 -8.40488262e-03 2.08984427e-02
    3.58520709e-02 8.39323923e-03 -3.07546952e-03 -3.19789676e-03
    -7.25683523e-03 -3.57227144e-03 -3.07324398e-02 -9.93697252e-03
    2.72119064e-02 1.18595427e-02 3.40203638e-03 -2.69209612e-02
    -1.15718627e-02 -1.50710382e-02 6.07359689e-03 -2.04244182e-02
    -2.68959277e-03 1.54828550e-02 1.04920389e-02 3.98728624e-02
    3.34668555e-03 1.55644575e-02 9.78009403e-03 -6.61355862e-03
    -2.82690618e-02 -6.74271910e-03 1.20170638e-02 -4.60913917e-03
    -4.18384140e-03 -2.06511449e-02 -1.22685311e-02 1.94894325e-03
    -1.74417486e-03 -2.45567951e-02 -3.20731513e-02 -2.15756558e-02
    5.20112850e-02 3.54000255e-02 1.93107873e-02 1.06157772e-02
    4.28350549e-03 2.95348074e-02 2.16118954e-02 4.20803502e-02
    5.67849800e-02 -1.06001087e-02 2.23397538e-02 3.87883522e-02
    -5.91524411e-04 4.33176830e-02 5.64767187e-03 2.19965149e-02
    1.22433156e-03 -2.55893935e-02 2.36496925e-02 9.04277712e-03
    -2.11643986e-02 1.25895589e-04 -1.05829993e-02 2.19253413e-02
    9.81978793e-03 2.03406569e-02 1.91683769e-02 -3.37907635e-02
    1.58582255e-02 -2.89474544e-03 -3.48708127e-03 5.53313158e-02
    -1.32963797e-02 3.61176184e-03 1.26424152e-02 -5.15165590e-02
    -2.96461247e-02 1.70498546e-02 1.00769829e-02 -1.97526552e-02
    -1.67675118e-03 -2.93922750e-03 1.28114829e-03 2.44533140e-02
    2.88324570e-03 1.97489206e-02 1.91420056e-02 1.27965686e-04
    -2.21333075e-02 -2.34833546e-02 -6.36287453e-03 -1.88479312e-02
    3.70391691e-03 2.88152993e-02 -7.36135989e-04 6.22875709e-03
    -6.82264974e-04 -1.19604059e-02 4.09222441e-03 2.20643673e-02
    1.55791419e-03 6.74531655e-03 1.98120456e-02 9.38661117e-03
    -3.54557275e-03 7.08439946e-03 -2.88408110e-03 -1.93747133e-02
    4.16478422e-03 -2.76298393e-02 -5.55419887e-04 2.64536347e-02
    1.48665728e-02 2.46937852e-02 -3.12579633e-03 7.52962008e-03
    -5.83085883e-03 -1.23121487e-02 -4.56496403e-02 -1.19747808e-02
    1.98637675e-02 1.90725997e-02 -1.35694351e-02 -2.15566568e-02
    -1.84952803e-02 -1.66687183e-02 -1.41032059e-02 -4.30325270e-02
    -3.60325654e-03 2.44168285e-02 1.19069009e-03 -1.39340414e-02
    -1.87236648e-02 3.18112737e-03 -1.98030882e-02 -1.22628186e-03
    -4.61126901e-02 -8.57867859e-03 2.25411952e-02 1.51644647e-02
    -4.45112996e-02 -1.85668822e-02 -9.62306978e-04 -1.00966264e-02
    -9.87211149e-03 -5.79853430e-02 -2.78928354e-02 1.92026608e-02
    4.33364958e-02 1.23816337e-02 -1.29185533e-02 -2.05860473e-02
    -2.56215315e-02 7.47168111e-03 3.62235401e-03 4.22173850e-02
    3.87181453e-02 -5.84845990e-02 2.21645255e-02 -5.60714118e-03
    -2.12027528e-03 4.88806665e-02 -2.60712840e-02 1.32595170e-02
    2.80726627e-02 -5.39967902e-02 4.98170555e-02 7.77835399e-03
    9.55782831e-03 8.06880090e-03 -2.38172896e-02 5.54772036e-04
    -1.55022852e-02 2.27128100e-02 7.49327093e-02 -1.82321165e-02
    8.83575995e-03 -2.21222523e-04 1.32837072e-02 2.90911309e-02
    -3.32112424e-02 1.41696641e-02 4.17869687e-02 -5.50678233e-03
    9.02674906e-03 2.96678990e-02 5.73446741e-03 -9.54559632e-03
    1.19962115e-02 1.07750222e-02 1.17077660e-02 5.56188822e-03
    -1.00991614e-02 7.05943303e-03 5.70777431e-03 -1.48962252e-03
    -4.74754535e-03 -1.93364844e-02 3.48714343e-03 -8.55958089e-03
    9.85605735e-03 3.62674729e-03 2.09986866e-02 2.87842620e-02
    -1.33770588e-03 1.76062286e-02 9.21851397e-03 -2.88564730e-02
    2.77426327e-03 2.85940263e-02 1.68581456e-02 2.60191467e-02
    -6.71651959e-03 -1.37149133e-02 -2.83017289e-03 -3.10945474e-02
    -2.75097266e-02 -1.86107811e-02 1.01844976e-02 2.45073084e-02
    -3.60467937e-03 -1.59159321e-02 -3.59578989e-02 -7.56733026e-03
    -3.52271497e-02 -7.61664566e-03 -1.87885016e-02 -1.19808381e-02
    -9.45794396e-03 1.75136253e-02 -1.96075998e-02 -9.07038432e-03
    1.00431507e-02 -7.56985601e-03 -2.09378125e-03 -4.58837487e-02
    -2.54636128e-02 -2.33002496e-03 2.06170343e-02 -1.09889149e-03
    -3.75883318e-02 -1.17025608e-02 -4.35090140e-02 -2.67827380e-02
    -1.92984641e-02 -2.00237185e-02 1.45125724e-02 1.57358535e-02
    6.75239693e-03 -5.96171245e-03 -4.98536788e-03 -6.19408395e-03
    -6.11337600e-03 -2.61411499e-02 -4.93512005e-02 1.21407658e-02
    5.61447255e-02 3.47688682e-02 2.54317969e-02 1.73602216e-02
    8.43632873e-03 5.34683885e-03 -2.20165011e-02 1.62158180e-02
    5.10337204e-02 -8.04511178e-03 1.00528412e-02 2.17783563e-02
    -1.95140466e-02 4.02458124e-02 -1.71517972e-02 1.81440506e-02
    3.26348729e-02 -1.94264129e-02 1.42403338e-02 2.81177629e-02
    1.34908017e-02 -1.03097558e-02 -8.12236033e-03 1.41208638e-02
    1.78168155e-03 6.56893430e-03 2.12478135e-02 -2.61966903e-02
    9.66410711e-03 1.23749510e-03 -3.46904323e-02 5.15958555e-02
    8.85062013e-03 1.69172473e-02 8.86465888e-03 -5.56547306e-02
    1.17659131e-02 2.93192118e-02 -5.72115928e-03 1.01590436e-02
    8.34483095e-03 1.01783657e-02 8.90128221e-03 4.41146716e-02
    3.21793780e-02 -5.07160928e-03 5.55361202e-03 -1.60522349e-02
    -1.32087097e-02 -1.24087939e-02 -1.77590288e-02 -5.81493741e-03
    -4.61855484e-03 4.23628949e-02 -1.20585049e-02 -2.21551880e-02
    -4.04858515e-02 -1.78294480e-02 2.46537328e-02 -4.32652747e-03
    -8.98221880e-03 1.23287333e-04 -2.19823625e-02 -2.90879756e-02
    -2.13147830e-02 -2.42177509e-02 -2.54462082e-02 -3.93872634e-02
    -1.53795201e-02 -2.48669256e-02 -2.32659634e-02 -3.20943780e-02
    2.39429325e-02 3.25263827e-03 -1.38508948e-02 2.70014367e-04
    -2.52701137e-02 -1.08488207e-03 -1.51772592e-02 -1.21665988e-02
    2.99371555e-02 1.74306631e-02 3.42793157e-03 2.65144627e-03
    -5.30659687e-03 -1.16379438e-02 7.76299334e-04 -8.58202484e-03
    -2.71006823e-02 1.33999223e-02 -2.40866169e-02 -2.15921067e-02
    -3.77960056e-02 -3.83260362e-02 -3.57148945e-02 -1.03995847e-02
    -1.93408281e-02 -1.51048154e-02 -2.10363772e-02 -2.84625981e-02
    -2.70098634e-02 -3.16359252e-02 -3.25086042e-02 -2.33414099e-02
    -1.27343079e-02 -5.66585409e-03 -2.93453340e-03 -2.55309977e-03
    5.33507168e-02 2.73885801e-02 1.30681153e-02 -2.21808441e-02
    1.02921593e-04 2.79230792e-02 1.89595148e-02 2.64420528e-02
    4.73706611e-02 3.97218112e-03 4.19611745e-02 1.35067897e-02
    -9.51463997e-04 8.10170099e-02 7.65014160e-03 4.79526352e-03
    6.69080019e-03 -3.24846283e-02 7.45010283e-03 8.29662103e-03
    -2.82121748e-02 -6.21159896e-02 -3.33031826e-02 1.89618068e-03
    3.64600727e-03 3.54701100e-04 2.03682482e-02 -2.91643795e-02
    2.67738570e-02 -1.81052275e-02 -1.38230575e-03 8.33802074e-02
    -8.60796124e-03 -2.07407326e-02 -2.21219286e-02 -4.57090847e-02
    3.62412557e-02 1.85829948e-03 -1.12642273e-02 2.72594001e-02
    4.02646773e-02 1.29292617e-02 7.91478436e-03 1.58246364e-02
    2.83363592e-02 3.63702737e-02 1.15887811e-02 3.09888646e-02
    2.29309220e-02 -1.43494988e-02 -1.95961865e-03 -2.84035187e-02
    -1.34295393e-02 1.94669217e-02 -3.99350515e-03 -4.91991900e-02
    -4.10998985e-02 -1.03889527e-02 -6.32560207e-03 -2.70240847e-02
    -3.27603370e-02 -1.64222680e-02 1.45105654e-02 5.84164076e-03
    -3.42953950e-02 -1.72270536e-02 1.88785046e-02 -3.26815546e-02
    -7.86704943e-03 -5.77582568e-02 -5.25986403e-02 1.09793656e-02
    3.31539996e-02 3.52696353e-03 1.61654595e-02 2.23877211e-03
    -1.45580051e-02 1.72477290e-02 -1.71710009e-04 1.58306882e-02
    3.97474691e-02 2.20644288e-02 -1.17547670e-02 6.12358190e-03
    1.88118555e-02 2.14693546e-02 2.26263702e-02 2.11000182e-02
    2.01968197e-02 3.38687971e-02 7.28970626e-03 -2.98375543e-02
    3.74499941e-03 9.47149657e-03 -2.58164201e-02 3.99696156e-02
    -2.01175176e-02 -3.61811332e-02 8.26747995e-03 2.78410669e-02
    -5.09141684e-02 -6.39773486e-03 -3.41408723e-03 -3.49221267e-02
    2.26204358e-02 -8.89667682e-03 -4.21147719e-02 9.96667426e-03
    3.94312628e-02 1.55858388e-02 -1.57538373e-02 -2.01782361e-02
    -1.01758935e-03 -3.20927054e-03 -1.25684254e-02 -1.34692965e-02
    2.38785762e-02 2.80435733e-03 4.65868227e-02 5.54880314e-03
    4.89562266e-02 1.13561518e-01 4.02467065e-02 -1.70748755e-02
    -3.24252956e-02 -2.49042995e-02 5.32217063e-02 -2.98829302e-02
    -2.06942856e-02 -3.98457982e-02 -7.74021000e-02 -2.25898176e-02
    -2.24892702e-02 -5.09360768e-02 2.98846662e-02 2.38435417e-02
    3.11751314e-03 1.47663318e-02 4.13512476e-02 7.64006451e-02
    2.38031913e-02 -1.10920593e-02 -4.59931232e-02 -2.46407595e-02
    -4.68163729e-01</SVMDetector></fool>
</opencv_storage>
